MLP 7 2 10 1
48.9393147033748 20.0 1.8742100337477825 51.254516811722965 75.45525022202487 52.766662449378174 5.9200710479573715
20.70983194103619 1.0 34.799531156974986 20.853332466368833 592.8697684774434 11.11256525006884 12.234636445231747
-0.01259647157827239 -0.09495985741090071 0.02052574648939101 -0.07224694799053966 0.12854198614303852 0.11009282210749322 -0.0949780803577154
-0.13171917489423926 -0.015609391056980696 -1.5384662423211801 0.10249781435273773 -0.28286559930183897 0.43001527507378146 -0.22536370469795908
-0.024268485842327648 0.008984701520803504 -0.29172047214588226 0.16686516875742438 -0.11032796694523822 -0.0028297924878662706 0.15596264881977145
0.0973714280226835 -0.03193711929209653 -0.03511932988314103 0.08392344225412596 -0.11216096915713678 -0.14535677796445862 0.06636883891229878
0.0301430019711355 0.020736909849434642 -0.0042900571018017 0.04965852233471856 0.0614136244911362 0.1423040100759222 -0.12393908559731358
-0.14234634155520326 0.06585458574459656 -0.10313343390353498 0.16992320622501317 0.09120752208451288 0.1396470198222312 -0.2661490761747047
-0.11556739230487077 -0.04210556168432583 -1.3655098315422316 0.12396408916619886 -0.3057935392443242 0.42187862674442467 -0.1318098692427712
0.033069653198844896 -0.025953423129782258 -0.03925973076394887 -0.05761741649637073 0.022568181492291894 -0.029160832177598506 0.15747717872091863
-0.03348251333251475 0.04580703310994154 -0.07015764626543249 -0.03925458390793506 0.07789616113809034 0.0071013899934049204 0.06091925630874757
0.08905283576767058 0.06854296136650442 0.634287135383436 -0.19785136710696694 0.1087153169193859 -0.1710302704417634 -0.12865215695697949
0.14706970329928437 0.5735934250023702 -0.12234115320388068 -0.13828980018011383 0.10291015333962693 0.16757167820814275 0.5117263473371263 -0.13888176010127387 -0.04656607300303029 -0.09839438380794224
-0.2409660957855458 1.1535448417781757 0.29293349293153126 0.22474220592674896 -0.1953056999034091 -0.38258739261658686 0.9942707543091025 0.18792925834209684 0.028892586751122048 -0.3375833588764185
-1.0382346708364878
