MLP 10 2 10 1
57.68528894192588 20.0 -2.554219101126501 42.51757813385192 66.79888363344952 57.355724652761104 1.0046942060085837 0.3295642891630976 29.670435710838508 1.66997209083624
32.561185374053366 1.0 65.45933155171012 32.54467410298537 488.9751263003064 5.5753123888893725 5.526332249883557 33.433113744520504 33.433113744520256 12.22437815750758
-0.11844541266618498 -0.09495985741090071 -0.6550391204224485 0.07283701931417187 0.03227184928363097 -0.2271815251019224 0.2532989531471291 -0.18130706622012477 0.08311847997760749 -0.1090064270416048
-0.09412639512863354 0.0010706292832545609 -0.2000173390379575 -0.02669910339411762 0.01895319579538588 -0.0011301637584070605 -0.06882980969719542 -0.017355929972035434 0.09706326876663772 -0.10967247925831167
0.17689925922726885 0.039612031014269515 0.24759101887593993 -0.17477319224525537 0.12057209584454759 0.06542598706271868 -0.14960725728530036 0.015758233361704194 -0.026911622477034033 0.04990296098762504
-0.0463990010195601 0.04592798246920949 -0.32340661358221734 0.19211514431395338 -0.032429493261945046 -0.1421770528463383 0.1687454628428442 -0.05584977723128578 0.15185669731283394 0.00731815810536297
-0.0927136099317413 -0.09079879648176925 -0.5122642253865429 0.07850193253268917 -0.07966815057123428 -0.287064186721322 0.09660198648128912 -0.13555209971898488 0.11829061516948673 -0.02268290882035095
0.06939066655463015 -0.058075359053109094 0.16098950297347492 -0.0029362558413220047 0.022372880976026098 0.09619237413426268 -0.10181261035763305 0.12626179685154262 -0.14774734257086503 -0.031321625620842376
-0.04846042723897087 0.027988754228608193 -0.4238518546627453 0.16891613249602078 0.051857865824890055 -0.11368600297229389 0.03088268988139221 -0.20789254350541927 0.07745538720214062 -0.06311834333034529
0.03310625884539779 0.08854651717193272 0.3021012559470917 -0.12126867091968214 0.026724370188965237 0.008277950079930417 0.11380142393273433 0.07543000368260395 -0.13066150284452757 -0.05500516297544351
-0.05254482060528388 -0.04743270141782549 -0.12443452632170107 0.1399106470763189 -0.02866268585125297 -0.08673336597987814 0.1122135392012982 -0.05611252750101191 -0.023768372574386066 -0.09909133469698561
0.07910601643152242 0.025479014695127436 0.4415265865469228 -0.16069489773263287 -0.08098303069326258 0.037202434918535435 0.1385117653628949 0.1487166579330552 -0.04871812081029923 0.07840360111151502
0.3573067496479434 0.013161548167277467 -0.07101615545545788 0.11507271352941309 0.22104054072959567 -0.03908730473138105 0.17588849787365166 -0.04694015421482986 0.01895947731503729 -0.12452178407589526
-1.115557828743839 -0.21453384804538245 0.40125231099684133 -0.5340903962187707 -0.8075768839709629 0.2803663639697521 -0.7227071067720543 0.3971437538742425 -0.1920779091748771 0.6419982979723816
-0.1448745824524143
