MLP 7 2 10 1
-6.804037464365254 50.171182257238485 42.28292424498874 16.18207126948775 2.9114336403117957 27.08856635968802 1.0570731061247236
40.61613264720265 11.981136314074053 332.93780473039726 21.29514022133077 19.258049683591583 19.258049683591572 8.323445118259919
0.20457381888980097 -0.3100452381387489 0.09986388439386873 -0.016087156954252918 0.24404835170828723 -0.16144725844048588 0.22324457210922014
-0.2698444903791485 0.14177944598662107 -0.2022823434522769 0.004328094633345999 -0.09332287151403466 -0.000261435714140446 -0.16848777773412646
0.037676968623820015 0.019753332485773774 -0.04307994755987484 -0.00030874476364564076 0.04293119952753371 -0.07973063353693237 0.07394895746829276
0.2479066892580512 -0.22655996405501755 0.04558782759370813 0.043530493209982306 0.10521594984289397 -0.21930222850019432 0.03383990310826841
-0.08858412169429115 0.14031980051648005 -0.02327082475304857 0.08976941148594668 -0.03796642371713147 0.13979445543985392 -0.10895532330772965
-0.05419472827864127 0.1039190213541127 -0.013989945413577497 0.10453530634958907 0.01535070882291311 0.04101153806083383 -0.12848321268312196
-0.28152117828235174 0.17721311391171563 -0.20556885243076997 -0.019434639446114576 -0.24995543062103437 0.12580010919229034 -0.09443482147135436
0.08133234551176989 -0.10221149319430294 0.00605698680857838 -0.08389101302195234 0.11146754493076794 0.0054236838123301505 0.08594981825962252
0.01715663009963489 -0.02968714913419781 -0.03127829896852526 -0.04131948029301086 0.13603575952118144 -0.010181489205890548 0.047399673546786675
0.034261918228403646 0.0633978335560008 0.049657631804904845 -0.04624489302030339 -0.08508139426822535 -0.04535576203504613 -0.05195352271335373
-0.2368699322317263 0.011602674402533123 0.005828928324495705 -0.18936897210165235 0.020540982740210153 -0.02711357013795278 0.19216930180833874 0.013417452188204016 0.005784521254976208 -0.0015456865996263068
-0.5957946655101797 0.45686969759808926 -0.036500147519078575 -0.4201117090996038 0.24087230995444575 0.16759598908633636 0.5236988798247326 -0.18116446963092855 -0.07287199125603121 -0.001451147977542098
-0.19445899690241572
